digraph Tree {
node [shape=box, style="filled, rounded", color="black", fontname=helvetica] ;
edge [fontname=helvetica] ;
0 [label="Standard deviation <= 1.02\ngini = 0.8\nsamples = 525\nvalue = [198, 143, 200, 162, 149]\nclass = undercut", fillcolor="#39e5c501"] ;
1 [label="Standard deviation <= -0.4\ngini = 0.75\nsamples = 433\nvalue = [198, 143, 200, 160, 0]\nclass = undercut", fillcolor="#39e5c501"] ;
0 -> 1 [labeldistance=2.5, labelangle=45, headlabel="True"] ;
2 [label="Number of profile points <= 0.4\ngini = 0.61\nsamples = 252\nvalue = [0, 130, 200, 68, 0]\nclass = undercut", fillcolor="#39e5c543"] ;
1 -> 2 ;
3 [label="Defect index <= -0.41\ngini = 0.03\nsamples = 35\nvalue = [0, 0, 1, 58, 0]\nclass = pore", fillcolor="#3c39e5fb"] ;
2 -> 3 ;
4 [label="gini = 0.0\nsamples = 34\nvalue = [0, 0, 0, 58, 0]\nclass = pore", fillcolor="#3c39e5ff"] ;
3 -> 4 ;
5 [label="gini = 0.0\nsamples = 1\nvalue = [0, 0, 1, 0, 0]\nclass = undercut", fillcolor="#39e5c5ff"] ;
3 -> 5 ;
6 [label="Peak valley index <= -0.71\ngini = 0.51\nsamples = 217\nvalue = [0, 130, 199, 10, 0]\nclass = undercut", fillcolor="#39e5c554"] ;
2 -> 6 ;
7 [label="gini = 0.0\nsamples = 134\nvalue = [0, 0, 199, 0, 0]\nclass = undercut", fillcolor="#39e5c5ff"] ;
6 -> 7 ;
8 [label="gini = 0.13\nsamples = 83\nvalue = [0, 130, 0, 10, 0]\nclass = dent", fillcolor="#7be539eb"] ;
6 -> 8 ;
9 [label="Defects height <= 0.04\ngini = 0.48\nsamples = 181\nvalue = [198, 13, 0, 92, 0]\nclass = normal seam", fillcolor="#e5813980"] ;
1 -> 9 ;
10 [label="Defects height <= -0.06\ngini = 0.05\nsamples = 52\nvalue = [0, 2, 0, 83, 0]\nclass = pore", fillcolor="#3c39e5f9"] ;
9 -> 10 ;
11 [label="gini = 0.0\nsamples = 48\nvalue = [0, 0, 0, 81, 0]\nclass = pore", fillcolor="#3c39e5ff"] ;
10 -> 11 ;
12 [label="gini = 0.5\nsamples = 4\nvalue = [0, 2, 0, 2, 0]\nclass = dent", fillcolor="#7be53900"] ;
10 -> 12 ;
13 [label="Standard deviation <= 0.2\ngini = 0.17\nsamples = 129\nvalue = [198, 11, 0, 9, 0]\nclass = normal seam", fillcolor="#e58139e6"] ;
9 -> 13 ;
14 [label="gini = 0.1\nsamples = 123\nvalue = [198, 11, 0, 0, 0]\nclass = normal seam", fillcolor="#e58139f1"] ;
13 -> 14 ;
15 [label="gini = 0.0\nsamples = 6\nvalue = [0, 0, 0, 9, 0]\nclass = pore", fillcolor="#3c39e5ff"] ;
13 -> 15 ;
16 [label="Defect index <= -0.78\ngini = 0.03\nsamples = 92\nvalue = [0, 0, 0, 2, 149]\nclass = burn through", fillcolor="#e539c0fc"] ;
0 -> 16 [labeldistance=2.5, labelangle=-45, headlabel="False"] ;
17 [label="gini = 0.0\nsamples = 1\nvalue = [0, 0, 0, 2, 0]\nclass = pore", fillcolor="#3c39e5ff"] ;
16 -> 17 ;
18 [label="gini = 0.0\nsamples = 91\nvalue = [0, 0, 0, 0, 149]\nclass = burn through", fillcolor="#e539c0ff"] ;
16 -> 18 ;
}